{
    "n_estimators": 5,
    "max_depth": 20,
    "feature_importances": [
        0.7275128829925265,
        0.1994904282137799,
        0.07267534624934639,
        0.0003213425443472498,
        0.0
    ],
    "estimators": [
        {
            "n_nodes": 11,
            "children_left": [
                1,
                3,
                -1,
                -1,
                5,
                7,
                -1,
                9,
                -1,
                -1,
                -1
            ],
            "children_right": [
                2,
                4,
                -1,
                -1,
                6,
                8,
                -1,
                10,
                -1,
                -1,
                -1
            ],
            "feature": [
                0,
                3,
                -2,
                -2,
                2,
                1,
                -2,
                0,
                -2,
                -2,
                -2
            ],
            "threshold": [
                350.5,
                1.5,
                -2.0,
                -2.0,
                101.5,
                7.5,
                -2.0,
                210.5,
                -2.0,
                -2.0,
                -2.0
            ],
            "class_label": [
                -10,
                -10,
                0,
                0,
                -10,
                -10,
                1,
                -10,
                0,
                0,
                1
            ],
            "leaves": [
                0,
                0,
                1,
                1,
                0,
                0,
                1,
                0,
                1,
                1,
                1
            ]
        },
        {
            "n_nodes": 9,
            "children_left": [
                1,
                3,
                -1,
                -1,
                5,
                7,
                -1,
                -1,
                -1
            ],
            "children_right": [
                2,
                4,
                -1,
                -1,
                6,
                8,
                -1,
                -1,
                -1
            ],
            "feature": [
                1,
                0,
                -2,
                -2,
                3,
                2,
                -2,
                -2,
                -2
            ],
            "threshold": [
                11.5,
                225.5,
                -2.0,
                -2.0,
                3.5,
                101.5,
                -2.0,
                -2.0,
                -2.0
            ],
            "class_label": [
                -10,
                -10,
                0,
                0,
                -10,
                -10,
                1,
                0,
                1
            ],
            "leaves": [
                0,
                0,
                1,
                1,
                0,
                0,
                1,
                1,
                1
            ]
        },
        {
            "n_nodes": 11,
            "children_left": [
                1,
                3,
                -1,
                5,
                -1,
                -1,
                7,
                -1,
                9,
                -1,
                -1
            ],
            "children_right": [
                2,
                4,
                -1,
                6,
                -1,
                -1,
                8,
                -1,
                10,
                -1,
                -1
            ],
            "feature": [
                0,
                2,
                -2,
                3,
                -2,
                -2,
                2,
                -2,
                0,
                -2,
                -2
            ],
            "threshold": [
                350.5,
                101.5,
                -2.0,
                4.5,
                -2.0,
                -2.0,
                64.0,
                -2.0,
                200.5,
                -2.0,
                -2.0
            ],
            "class_label": [
                -10,
                -10,
                0,
                -10,
                1,
                0,
                -10,
                0,
                -10,
                0,
                1
            ],
            "leaves": [
                0,
                0,
                1,
                0,
                1,
                1,
                0,
                1,
                0,
                1,
                1
            ]
        },
        {
            "n_nodes": 9,
            "children_left": [
                1,
                3,
                -1,
                -1,
                5,
                7,
                -1,
                -1,
                -1
            ],
            "children_right": [
                2,
                4,
                -1,
                -1,
                6,
                8,
                -1,
                -1,
                -1
            ],
            "feature": [
                0,
                0,
                -2,
                -2,
                0,
                2,
                -2,
                -2,
                -2
            ],
            "threshold": [
                350.5,
                225.5,
                -2.0,
                -2.0,
                249.0,
                75.0,
                -2.0,
                -2.0,
                -2.0
            ],
            "class_label": [
                -10,
                -10,
                0,
                0,
                -10,
                -10,
                1,
                1,
                0
            ],
            "leaves": [
                0,
                0,
                1,
                1,
                0,
                0,
                1,
                1,
                1
            ]
        },
        {
            "n_nodes": 9,
            "children_left": [
                1,
                5,
                3,
                -1,
                -1,
                7,
                -1,
                -1,
                -1
            ],
            "children_right": [
                2,
                6,
                4,
                -1,
                -1,
                8,
                -1,
                -1,
                -1
            ],
            "feature": [
                2,
                1,
                0,
                -2,
                -2,
                0,
                -2,
                -2,
                -2
            ],
            "threshold": [
                115.0,
                7.5,
                392.0,
                -2.0,
                -2.0,
                221.0,
                -2.0,
                -2.0,
                -2.0
            ],
            "class_label": [
                -10,
                -10,
                -10,
                1,
                0,
                -10,
                0,
                0,
                1
            ],
            "leaves": [
                0,
                0,
                0,
                1,
                1,
                0,
                1,
                1,
                1
            ]
        }
    ]
}